digraph Tree {
node [shape=box, style="filled, rounded", color="black", fontname="helvetica"] ;
graph [ranksep=equally, splines=polyline] ;
edge [fontname="helvetica"] ;
0 [label="node #0\nPETAL LENGTH <= 2.45\ngini = 0.67\nsamples = 150\nvalue = [50, 50, 50]\nclass = SETOSA", fillcolor="#ffffff"] ;
1 [label="node #1\ngini = 0.0\nsamples = 50\nvalue = [50, 0, 0]\nclass = SETOSA", fillcolor="#e58139"] ;
0 -> 1 [labeldistance=2.5, labelangle=45, headlabel="True"] ;
2 [label="node #2\nPETAL WIDTH <= 1.75\ngini = 0.5\nsamples = 100\nvalue = [0, 50, 50]\nclass = VERSICOLOR", fillcolor="#ffffff"] ;
0 -> 2 [labeldistance=2.5, labelangle=-45, headlabel="False"] ;
3 [label="node #3\ngini = 0.17\nsamples = 54\nvalue = [0, 49, 5]\nclass = VERSICOLOR", fillcolor="#4de88e"] ;
2 -> 3 ;
4 [label="node #4\ngini = 0.04\nsamples = 46\nvalue = [0, 1, 45]\nclass = VIRGINICA", fillcolor="#843de6"] ;
2 -> 4 ;
{rank=same ; 0} ;
{rank=same ; 2} ;
{rank=same ; 1; 3; 4} ;
}