digraph Tree {
node [shape=box, style="filled, rounded", color="black", fontname="helvetica"] ;
edge [fontname="helvetica"] ;
0 [label="node #0\nx1 <= 0.772\nsquared_error = 0.226\nsamples = 200\nvalue = 0.475", fillcolor="#f6d3ba"] ;
1 [label="node #1\nx1 <= 0.13\nsquared_error = 0.064\nsamples = 154\nvalue = 0.259", fillcolor="#f9e0ce"] ;
0 -> 1 [labeldistance=2.5, labelangle=45, headlabel="True"] ;
2 [label="node #2\nx1 <= 0.046\nsquared_error = 0.024\nsamples = 29\nvalue = 0.591", fillcolor="#f4ccaf"] ;
1 -> 2 ;
3 [label="node #3\nx1 <= 0.023\nsquared_error = 0.012\nsamples = 10\nvalue = 0.748", fillcolor="#f3c3a0"] ;
2 -> 3 ;
4 [label="node #4\nx1 <= 0.012\nsquared_error = 0.006\nsamples = 4\nvalue = 0.824", fillcolor="#f2be99"] ;
3 -> 4 ;
5 [label="node #5\nx1 <= 0.006\nsquared_error = 0.001\nsamples = 2\nvalue = 0.757", fillcolor="#f2c29f"] ;
4 -> 5 ;
6 [label="node #6\nsquared_error = 0.0\nsamples = 1\nvalue = 0.731", fillcolor="#f3c4a2"] ;
5 -> 6 ;
7 [label="node #7\nsquared_error = -0.0\nsamples = 1\nvalue = 0.784", fillcolor="#f2c09d"] ;
5 -> 7 ;
8 [label="node #8\nx1 <= 0.019\nsquared_error = 0.003\nsamples = 2\nvalue = 0.89", fillcolor="#f1ba93"] ;
4 -> 8 ;
9 [label="node #9\nsquared_error = 0.0\nsamples = 1\nvalue = 0.944", fillcolor="#f0b78d"] ;
8 -> 9 ;
10 [label="node #10\nsquared_error = -0.0\nsamples = 1\nvalue = 0.836", fillcolor="#f1bd98"] ;
8 -> 10 ;
11 [label="node #11\nx1 <= 0.028\nsquared_error = 0.009\nsamples = 6\nvalue = 0.697", fillcolor="#f3c6a5"] ;
3 -> 11 ;
12 [label="node #12\nsquared_error = 0.0\nsamples = 1\nvalue = 0.575", fillcolor="#f5cdb0"] ;
11 -> 12 ;
13 [label="node #13\nx1 <= 0.033\nsquared_error = 0.007\nsamples = 5\nvalue = 0.722", fillcolor="#f3c4a2"] ;
11 -> 13 ;
14 [label="node #14\nsquared_error = 0.0\nsamples = 1\nvalue = 0.891", fillcolor="#f1ba92"] ;
13 -> 14 ;
15 [label="node #15\nx1 <= 0.039\nsquared_error = 0.0\nsamples = 4\nvalue = 0.679", fillcolor="#f3c7a6"] ;
13 -> 15 ;
16 [label="node #16\nx1 <= 0.036\nsquared_error = 0.0\nsamples = 2\nvalue = 0.688", fillcolor="#f3c6a6"] ;
15 -> 16 ;
17 [label="node #17\nsquared_error = 0.0\nsamples = 1\nvalue = 0.686", fillcolor="#f3c6a6"] ;
16 -> 17 ;
18 [label="node #18\nsquared_error = 0.0\nsamples = 1\nvalue = 0.69", fillcolor="#f3c6a5"] ;
16 -> 18 ;
19 [label="node #19\nx1 <= 0.043\nsquared_error = 0.0\nsamples = 2\nvalue = 0.671", fillcolor="#f3c7a7"] ;
15 -> 19 ;
20 [label="node #20\nsquared_error = 0.0\nsamples = 1\nvalue = 0.655", fillcolor="#f4c8a9"] ;
19 -> 20 ;
21 [label="node #21\nsquared_error = -0.0\nsamples = 1\nvalue = 0.686", fillcolor="#f3c6a6"] ;
19 -> 21 ;
22 [label="node #22\nx1 <= 0.092\nsquared_error = 0.01\nsamples = 19\nvalue = 0.509", fillcolor="#f5d1b6"] ;
2 -> 22 ;
23 [label="node #23\nx1 <= 0.061\nsquared_error = 0.006\nsamples = 10\nvalue = 0.566", fillcolor="#f5cdb1"] ;
22 -> 23 ;
24 [label="node #24\nx1 <= 0.055\nsquared_error = 0.001\nsamples = 3\nvalue = 0.51", fillcolor="#f5d1b6"] ;
23 -> 24 ;
25 [label="node #25\nx1 <= 0.049\nsquared_error = 0.0\nsamples = 2\nvalue = 0.532", fillcolor="#f5cfb4"] ;
24 -> 25 ;
26 [label="node #26\nsquared_error = 0.0\nsamples = 1\nvalue = 0.539", fillcolor="#f5cfb4"] ;
25 -> 26 ;
27 [label="node #27\nsquared_error = 0.0\nsamples = 1\nvalue = 0.524", fillcolor="#f5d0b5"] ;
25 -> 27 ;
28 [label="node #28\nsquared_error = 0.0\nsamples = 1\nvalue = 0.465", fillcolor="#f6d3ba"] ;
24 -> 28 ;
29 [label="node #29\nx1 <= 0.076\nsquared_error = 0.006\nsamples = 7\nvalue = 0.59", fillcolor="#f4ccaf"] ;
23 -> 29 ;
30 [label="node #30\nx1 <= 0.074\nsquared_error = 0.007\nsamples = 4\nvalue = 0.632", fillcolor="#f4c9ab"] ;
29 -> 30 ;
31 [label="node #31\nx1 <= 0.064\nsquared_error = 0.001\nsamples = 3\nvalue = 0.589", fillcolor="#f4ccaf"] ;
30 -> 31 ;
32 [label="node #32\nsquared_error = 0.0\nsamples = 1\nvalue = 0.629", fillcolor="#f4caab"] ;
31 -> 32 ;
33 [label="node #33\nx1 <= 0.07\nsquared_error = 0.001\nsamples = 2\nvalue = 0.569", fillcolor="#f5cdb1"] ;
31 -> 33 ;
34 [label="node #34\nsquared_error = 0.0\nsamples = 1\nvalue = 0.539", fillcolor="#f5cfb4"] ;
33 -> 34 ;
35 [label="node #35\nsquared_error = -0.0\nsamples = 1\nvalue = 0.599", fillcolor="#f4cbae"] ;
33 -> 35 ;
36 [label="node #36\nsquared_error = 0.0\nsamples = 1\nvalue = 0.761", fillcolor="#f2c29f"] ;
30 -> 36 ;
37 [label="node #37\nx1 <= 0.083\nsquared_error = 0.0\nsamples = 3\nvalue = 0.533", fillcolor="#f5cfb4"] ;
29 -> 37 ;
38 [label="node #38\nsquared_error = 0.0\nsamples = 1\nvalue = 0.516", fillcolor="#f5d0b6"] ;
37 -> 38 ;
39 [label="node #39\nx1 <= 0.089\nsquared_error = 0.0\nsamples = 2\nvalue = 0.542", fillcolor="#f5cfb3"] ;
37 -> 39 ;
40 [label="node #40\nsquared_error = 0.0\nsamples = 1\nvalue = 0.537", fillcolor="#f5cfb4"] ;
39 -> 40 ;
41 [label="node #41\nsquared_error = -0.0\nsamples = 1\nvalue = 0.548", fillcolor="#f5ceb3"] ;
39 -> 41 ;
42 [label="node #42\nx1 <= 0.12\nsquared_error = 0.007\nsamples = 9\nvalue = 0.446", fillcolor="#f6d5bc"] ;
22 -> 42 ;
43 [label="node #43\nx1 <= 0.095\nsquared_error = 0.005\nsamples = 7\nvalue = 0.428", fillcolor="#f6d6be"] ;
42 -> 43 ;
44 [label="node #44\nsquared_error = 0.0\nsamples = 1\nvalue = 0.495", fillcolor="#f6d2b8"] ;
43 -> 44 ;
45 [label="node #45\nx1 <= 0.103\nsquared_error = 0.005\nsamples = 6\nvalue = 0.417", fillcolor="#f7d6bf"] ;
43 -> 45 ;
46 [label="node #46\nsquared_error = 0.0\nsamples = 1\nvalue = 0.306", fillcolor="#f8ddca"] ;
45 -> 46 ;
47 [label="node #47\nx1 <= 0.112\nsquared_error = 0.003\nsamples = 5\nvalue = 0.439", fillcolor="#f6d5bd"] ;
45 -> 47 ;
48 [label="node #48\nx1 <= 0.109\nsquared_error = 0.001\nsamples = 2\nvalue = 0.492", fillcolor="#f6d2b8"] ;
47 -> 48 ;
49 [label="node #49\nsquared_error = 0.0\nsamples = 1\nvalue = 0.518", fillcolor="#f5d0b6"] ;
48 -> 49 ;
50 [label="node #50\nsquared_error = 0.0\nsamples = 1\nvalue = 0.467", fillcolor="#f6d3ba"] ;
48 -> 50 ;
51 [label="node #51\nx1 <= 0.115\nsquared_error = 0.002\nsamples = 3\nvalue = 0.404", fillcolor="#f7d7c0"] ;
47 -> 51 ;
52 [label="node #52\nsquared_error = 0.0\nsamples = 1\nvalue = 0.343", fillcolor="#f8dbc6"] ;
51 -> 52 ;
53 [label="node #53\nx1 <= 0.118\nsquared_error = 0.0\nsamples = 2\nvalue = 0.434", fillcolor="#f6d5bd"] ;
51 -> 53 ;
54 [label="node #54\nsquared_error = 0.0\nsamples = 1\nvalue = 0.425", fillcolor="#f6d6be"] ;
53 -> 54 ;
55 [label="node #55\nsquared_error = 0.0\nsamples = 1\nvalue = 0.444", fillcolor="#f6d5bd"] ;
53 -> 55 ;
56 [label="node #56\nx1 <= 0.121\nsquared_error = 0.01\nsamples = 2\nvalue = 0.507", fillcolor="#f5d1b7"] ;
42 -> 56 ;
57 [label="node #57\nsquared_error = 0.0\nsamples = 1\nvalue = 0.606", fillcolor="#f4cbad"] ;
56 -> 57 ;
58 [label="node #58\nsquared_error = 0.0\nsamples = 1\nvalue = 0.408", fillcolor="#f7d7c0"] ;
56 -> 58 ;
59 [label="node #59\nx1 <= 0.628\nsquared_error = 0.042\nsamples = 125\nvalue = 0.181", fillcolor="#fae4d5"] ;
1 -> 59 ;
60 [label="node #60\nx1 <= 0.197\nsquared_error = 0.021\nsamples = 98\nvalue = 0.103", fillcolor="#fae9dd"] ;
59 -> 60 ;
61 [label="node #61\nx1 <= 0.191\nsquared_error = 0.01\nsamples = 15\nvalue = 0.332", fillcolor="#f8dbc7"] ;
60 -> 61 ;
62 [label="node #62\nx1 <= 0.186\nsquared_error = 0.006\nsamples = 14\nvalue = 0.313", fillcolor="#f8ddc9"] ;
61 -> 62 ;
63 [label="node #63\nx1 <= 0.139\nsquared_error = 0.006\nsamples = 12\nvalue = 0.327", fillcolor="#f8dcc7"] ;
62 -> 63 ;
64 [label="node #64\nsquared_error = 0.0\nsamples = 1\nvalue = 0.255", fillcolor="#f9e0ce"] ;
63 -> 64 ;
65 [label="node #65\nx1 <= 0.159\nsquared_error = 0.005\nsamples = 11\nvalue = 0.334", fillcolor="#f8dbc7"] ;
63 -> 65 ;
66 [label="node #66\nx1 <= 0.156\nsquared_error = 0.004\nsamples = 5\nvalue = 0.363", fillcolor="#f7dac4"] ;
65 -> 66 ;
67 [label="node #67\nx1 <= 0.14\nsquared_error = 0.001\nsamples = 4\nvalue = 0.332", fillcolor="#f8dbc7"] ;
66 -> 67 ;
68 [label="node #68\nsquared_error = 0.0\nsamples = 1\nvalue = 0.373", fillcolor="#f7d9c3"] ;
67 -> 68 ;
69 [label="node #69\nsquared_error = 0.001\nsamples = 3\nvalue = 0.318", fillcolor="#f8dcc8"] ;
67 -> 69 ;
70 [label="node #70\nsquared_error = -0.0\nsamples = 1\nvalue = 0.484", fillcolor="#f6d2b9"] ;
66 -> 70 ;
71 [label="node #71\nx1 <= 0.166\nsquared_error = 0.005\nsamples = 6\nvalue = 0.31", fillcolor="#f8ddc9"] ;
65 -> 71 ;
72 [label="node #72\nsquared_error = 0.0\nsamples = 1\nvalue = 0.183", fillcolor="#f9e4d5"] ;
71 -> 72 ;
73 [label="node #73\nx1 <= 0.184\nsquared_error = 0.002\nsamples = 5\nvalue = 0.335", fillcolor="#f8dbc7"] ;
71 -> 73 ;
74 [label="node #74\nsquared_error = 0.002\nsamples = 4\nvalue = 0.347", fillcolor="#f7dac6"] ;
73 -> 74 ;
75 [label="node #75\nsquared_error = -0.0\nsamples = 1\nvalue = 0.288", fillcolor="#f8decb"] ;
73 -> 75 ;
76 [label="node #76\nx1 <= 0.187\nsquared_error = 0.0\nsamples = 2\nvalue = 0.228", fillcolor="#f9e2d1"] ;
62 -> 76 ;
77 [label="node #77\nsquared_error = 0.0\nsamples = 1\nvalue = 0.215", fillcolor="#f9e2d2"] ;
76 -> 77 ;
78 [label="node #78\nsquared_error = -0.0\nsamples = 1\nvalue = 0.241", fillcolor="#f9e1d0"] ;
76 -> 78 ;
79 [label="node #79\nsquared_error = 0.0\nsamples = 1\nvalue = 0.593", fillcolor="#f4ccae"] ;
61 -> 79 ;
80 [label="node #80\nx1 <= 0.576\nsquared_error = 0.012\nsamples = 83\nvalue = 0.061", fillcolor="#fbece0"] ;
60 -> 80 ;
81 [label="node #81\nx1 <= 0.255\nsquared_error = 0.011\nsamples = 74\nvalue = 0.045", fillcolor="#fbede2"] ;
80 -> 81 ;
82 [label="node #82\nx1 <= 0.251\nsquared_error = 0.005\nsamples = 13\nvalue = 0.113", fillcolor="#fae8dc"] ;
81 -> 82 ;
83 [label="node #83\nx1 <= 0.242\nsquared_error = 0.004\nsamples = 12\nvalue = 0.106", fillcolor="#fae9dc"] ;
82 -> 83 ;
84 [label="node #84\nx1 <= 0.239\nsquared_error = 0.005\nsamples = 10\nvalue = 0.117", fillcolor="#fae8db"] ;
83 -> 84 ;
85 [label="node #85\nx1 <= 0.217\nsquared_error = 0.005\nsamples = 8\nvalue = 0.104", fillcolor="#fae9dd"] ;
84 -> 85 ;
86 [label="node #86\nsquared_error = 0.006\nsamples = 3\nvalue = 0.144", fillcolor="#fae7d9"] ;
85 -> 86 ;
87 [label="node #87\nsquared_error = 0.003\nsamples = 5\nvalue = 0.079", fillcolor="#fbebdf"] ;
85 -> 87 ;
88 [label="node #88\nx1 <= 0.241\nsquared_error = 0.0\nsamples = 2\nvalue = 0.17", fillcolor="#fae5d6"] ;
84 -> 88 ;
89 [label="node #89\nsquared_error = 0.0\nsamples = 1\nvalue = 0.19", fillcolor="#f9e4d4"] ;
88 -> 89 ;
90 [label="node #90\nsquared_error = 0.0\nsamples = 1\nvalue = 0.149", fillcolor="#fae6d8"] ;
88 -> 90 ;
91 [label="node #91\nx1 <= 0.246\nsquared_error = 0.0\nsamples = 2\nvalue = 0.054", fillcolor="#fbece1"] ;
83 -> 91 ;
92 [label="node #92\nsquared_error = 0.0\nsamples = 1\nvalue = 0.066", fillcolor="#fbebe0"] ;
91 -> 92 ;
93 [label="node #93\nsquared_error = -0.0\nsamples = 1\nvalue = 0.043", fillcolor="#fbede2"] ;
91 -> 93 ;
94 [label="node #94\nsquared_error = -0.0\nsamples = 1\nvalue = 0.195", fillcolor="#f9e4d4"] ;
82 -> 94 ;
95 [label="node #95\nx1 <= 0.496\nsquared_error = 0.011\nsamples = 61\nvalue = 0.03", fillcolor="#fbede3"] ;
81 -> 95 ;
96 [label="node #96\nx1 <= 0.287\nsquared_error = 0.01\nsamples = 44\nvalue = 0.01", fillcolor="#fcefe5"] ;
95 -> 96 ;
97 [label="node #97\nx1 <= 0.283\nsquared_error = 0.005\nsamples = 6\nvalue = 0.058", fillcolor="#fbece1"] ;
96 -> 97 ;
98 [label="node #98\nx1 <= 0.275\nsquared_error = 0.003\nsamples = 5\nvalue = 0.038", fillcolor="#fbede3"] ;
97 -> 98 ;
99 [label="node #99\nsquared_error = 0.004\nsamples = 3\nvalue = 0.059", fillcolor="#fbece1"] ;
98 -> 99 ;
100 [label="node #100\nsquared_error = 0.0\nsamples = 2\nvalue = 0.006", fillcolor="#fcefe6"] ;
98 -> 100 ;
101 [label="node #101\nsquared_error = 0.0\nsamples = 1\nvalue = 0.156", fillcolor="#fae6d8"] ;
97 -> 101 ;
102 [label="node #102\nx1 <= 0.29\nsquared_error = 0.01\nsamples = 38\nvalue = 0.003", fillcolor="#fcefe6"] ;
96 -> 102 ;
103 [label="node #103\nsquared_error = 0.0\nsamples = 1\nvalue = -0.263", fillcolor="#ffffff"] ;
102 -> 103 ;
104 [label="node #104\nx1 <= 0.319\nsquared_error = 0.008\nsamples = 37\nvalue = 0.01", fillcolor="#fcefe5"] ;
102 -> 104 ;
105 [label="node #105\nsquared_error = 0.005\nsamples = 9\nvalue = -0.03", fillcolor="#fcf1e9"] ;
104 -> 105 ;
106 [label="node #106\nsquared_error = 0.009\nsamples = 28\nvalue = 0.023", fillcolor="#fbeee4"] ;
104 -> 106 ;
107 [label="node #107\nx1 <= 0.524\nsquared_error = 0.01\nsamples = 17\nvalue = 0.081", fillcolor="#fbeadf"] ;
95 -> 107 ;
108 [label="node #108\nx1 <= 0.521\nsquared_error = 0.014\nsamples = 9\nvalue = 0.105", fillcolor="#fae9dc"] ;
107 -> 108 ;
109 [label="node #109\nx1 <= 0.519\nsquared_error = 0.013\nsamples = 8\nvalue = 0.087", fillcolor="#fbeade"] ;
108 -> 109 ;
110 [label="node #110\nsquared_error = 0.012\nsamples = 7\nvalue = 0.105", fillcolor="#fae9dc"] ;
109 -> 110 ;
111 [label="node #111\nsquared_error = -0.0\nsamples = 1\nvalue = -0.042", fillcolor="#fcf2ea"] ;
109 -> 111 ;
112 [label="node #112\nsquared_error = 0.0\nsamples = 1\nvalue = 0.252", fillcolor="#f9e0cf"] ;
108 -> 112 ;
113 [label="node #113\nx1 <= 0.541\nsquared_error = 0.003\nsamples = 8\nvalue = 0.054", fillcolor="#fbece1"] ;
107 -> 113 ;
114 [label="node #114\nx1 <= 0.538\nsquared_error = 0.003\nsamples = 4\nvalue = 0.013", fillcolor="#fceee5"] ;
113 -> 114 ;
115 [label="node #115\nsquared_error = 0.002\nsamples = 3\nvalue = 0.033", fillcolor="#fbede3"] ;
114 -> 115 ;
116 [label="node #116\nsquared_error = -0.0\nsamples = 1\nvalue = -0.047", fillcolor="#fcf2eb"] ;
114 -> 116 ;
117 [label="node #117\nx1 <= 0.551\nsquared_error = 0.001\nsamples = 4\nvalue = 0.096", fillcolor="#fbeadd"] ;
113 -> 117 ;
118 [label="node #118\nsquared_error = 0.001\nsamples = 2\nvalue = 0.111", fillcolor="#fae9dc"] ;
117 -> 118 ;
119 [label="node #119\nsquared_error = 0.0\nsamples = 2\nvalue = 0.08", fillcolor="#fbeadf"] ;
117 -> 119 ;
120 [label="node #120\nx1 <= 0.598\nsquared_error = 0.004\nsamples = 9\nvalue = 0.197", fillcolor="#f9e3d4"] ;
80 -> 120 ;
121 [label="node #121\nx1 <= 0.592\nsquared_error = 0.0\nsamples = 3\nvalue = 0.246", fillcolor="#f9e1cf"] ;
120 -> 121 ;
122 [label="node #122\nsquared_error = 0.0\nsamples = 1\nvalue = 0.242", fillcolor="#f9e1d0"] ;
121 -> 122 ;
123 [label="node #123\nx1 <= 0.595\nsquared_error = 0.0\nsamples = 2\nvalue = 0.248", fillcolor="#f9e0cf"] ;
121 -> 123 ;
124 [label="node #124\nsquared_error = 0.0\nsamples = 1\nvalue = 0.248", fillcolor="#f9e0cf"] ;
123 -> 124 ;
125 [label="node #125\nsquared_error = 0.0\nsamples = 1\nvalue = 0.247", fillcolor="#f9e0cf"] ;
123 -> 125 ;
126 [label="node #126\nx1 <= 0.609\nsquared_error = 0.005\nsamples = 6\nvalue = 0.173", fillcolor="#fae5d6"] ;
120 -> 126 ;
127 [label="node #127\nx1 <= 0.6\nsquared_error = 0.0\nsamples = 3\nvalue = 0.113", fillcolor="#fae8dc"] ;
126 -> 127 ;
128 [label="node #128\nsquared_error = 0.0\nsamples = 1\nvalue = 0.126", fillcolor="#fae8da"] ;
127 -> 128 ;
129 [label="node #129\nx1 <= 0.604\nsquared_error = 0.0\nsamples = 2\nvalue = 0.107", fillcolor="#fae9dc"] ;
127 -> 129 ;
130 [label="node #130\nsquared_error = 0.0\nsamples = 1\nvalue = 0.105", fillcolor="#fae9dc"] ;
129 -> 130 ;
131 [label="node #131\nsquared_error = -0.0\nsamples = 1\nvalue = 0.108", fillcolor="#fae9dc"] ;
129 -> 131 ;
132 [label="node #132\nx1 <= 0.611\nsquared_error = 0.002\nsamples = 3\nvalue = 0.234", fillcolor="#f9e1d0"] ;
126 -> 132 ;
133 [label="node #133\nsquared_error = 0.0\nsamples = 1\nvalue = 0.301", fillcolor="#f8ddca"] ;
132 -> 133 ;
134 [label="node #134\nx1 <= 0.618\nsquared_error = 0.0\nsamples = 2\nvalue = 0.2", fillcolor="#f9e3d3"] ;
132 -> 134 ;
135 [label="node #135\nsquared_error = 0.0\nsamples = 1\nvalue = 0.217", fillcolor="#f9e2d2"] ;
134 -> 135 ;
136 [label="node #136\nsquared_error = -0.0\nsamples = 1\nvalue = 0.184", fillcolor="#f9e4d5"] ;
134 -> 136 ;
137 [label="node #137\nx1 <= 0.705\nsquared_error = 0.013\nsamples = 27\nvalue = 0.468", fillcolor="#f6d3ba"] ;
59 -> 137 ;
138 [label="node #138\nx1 <= 0.688\nsquared_error = 0.003\nsamples = 14\nvalue = 0.378", fillcolor="#f7d9c3"] ;
137 -> 138 ;
139 [label="node #139\nx1 <= 0.633\nsquared_error = 0.002\nsamples = 12\nvalue = 0.367", fillcolor="#f7d9c4"] ;
138 -> 139 ;
140 [label="node #140\nx1 <= 0.633\nsquared_error = 0.001\nsamples = 2\nvalue = 0.323", fillcolor="#f8dcc8"] ;
139 -> 140 ;
141 [label="node #141\nsquared_error = 0.0\nsamples = 1\nvalue = 0.351", fillcolor="#f7dac5"] ;
140 -> 141 ;
142 [label="node #142\nsquared_error = 0.0\nsamples = 1\nvalue = 0.295", fillcolor="#f8decb"] ;
140 -> 142 ;
143 [label="node #143\nx1 <= 0.653\nsquared_error = 0.002\nsamples = 10\nvalue = 0.376", fillcolor="#f7d9c3"] ;
139 -> 143 ;
144 [label="node #144\nx1 <= 0.633\nsquared_error = 0.001\nsamples = 5\nvalue = 0.401", fillcolor="#f7d7c1"] ;
143 -> 144 ;
145 [label="node #145\nsquared_error = 0.0\nsamples = 1\nvalue = 0.436", fillcolor="#f6d5bd"] ;
144 -> 145 ;
146 [label="node #146\nx1 <= 0.641\nsquared_error = 0.0\nsamples = 4\nvalue = 0.392", fillcolor="#f7d8c1"] ;
144 -> 146 ;
147 [label="node #147\nx1 <= 0.635\nsquared_error = 0.0\nsamples = 3\nvalue = 0.384", fillcolor="#f7d8c2"] ;
146 -> 147 ;
148 [label="node #148\nsquared_error = 0.0\nsamples = 1\nvalue = 0.403", fillcolor="#f7d7c0"] ;
147 -> 148 ;
149 [label="node #149\nsquared_error = 0.0\nsamples = 2\nvalue = 0.375", fillcolor="#f7d9c3"] ;
147 -> 149 ;
150 [label="node #150\nsquared_error = 0.0\nsamples = 1\nvalue = 0.416", fillcolor="#f7d6bf"] ;
146 -> 150 ;
151 [label="node #151\nx1 <= 0.661\nsquared_error = 0.002\nsamples = 5\nvalue = 0.351", fillcolor="#f7dac5"] ;
143 -> 151 ;
152 [label="node #152\nsquared_error = 0.0\nsamples = 1\nvalue = 0.306", fillcolor="#f8ddc9"] ;
151 -> 152 ;
153 [label="node #153\nx1 <= 0.675\nsquared_error = 0.002\nsamples = 4\nvalue = 0.362", fillcolor="#f7dac4"] ;
151 -> 153 ;
154 [label="node #154\nx1 <= 0.667\nsquared_error = 0.001\nsamples = 2\nvalue = 0.392", fillcolor="#f7d8c1"] ;
153 -> 154 ;
155 [label="node #155\nsquared_error = 0.0\nsamples = 1\nvalue = 0.36", fillcolor="#f7dac4"] ;
154 -> 155 ;
156 [label="node #156\nsquared_error = 0.0\nsamples = 1\nvalue = 0.425", fillcolor="#f7d6be"] ;
154 -> 156 ;
157 [label="node #157\nx1 <= 0.681\nsquared_error = 0.001\nsamples = 2\nvalue = 0.331", fillcolor="#f8dbc7"] ;
153 -> 157 ;
158 [label="node #158\nsquared_error = 0.0\nsamples = 1\nvalue = 0.303", fillcolor="#f8ddca"] ;
157 -> 158 ;
159 [label="node #159\nsquared_error = 0.0\nsamples = 1\nvalue = 0.359", fillcolor="#f7dac4"] ;
157 -> 159 ;
160 [label="node #160\nx1 <= 0.697\nsquared_error = 0.002\nsamples = 2\nvalue = 0.441", fillcolor="#f6d5bd"] ;
138 -> 160 ;
161 [label="node #161\nsquared_error = 0.0\nsamples = 1\nvalue = 0.486", fillcolor="#f6d2b9"] ;
160 -> 161 ;
162 [label="node #162\nsquared_error = 0.0\nsamples = 1\nvalue = 0.397", fillcolor="#f7d8c1"] ;
160 -> 162 ;
163 [label="node #163\nx1 <= 0.731\nsquared_error = 0.007\nsamples = 13\nvalue = 0.565", fillcolor="#f5cdb1"] ;
137 -> 163 ;
164 [label="node #164\nx1 <= 0.729\nsquared_error = 0.005\nsamples = 7\nvalue = 0.518", fillcolor="#f5d0b6"] ;
163 -> 164 ;
165 [label="node #165\nx1 <= 0.727\nsquared_error = 0.005\nsamples = 5\nvalue = 0.543", fillcolor="#f5cfb3"] ;
164 -> 165 ;
166 [label="node #166\nx1 <= 0.72\nsquared_error = 0.002\nsamples = 4\nvalue = 0.517", fillcolor="#f5d0b6"] ;
165 -> 166 ;
167 [label="node #167\nx1 <= 0.707\nsquared_error = 0.002\nsamples = 3\nvalue = 0.536", fillcolor="#f5cfb4"] ;
166 -> 167 ;
168 [label="node #168\nsquared_error = 0.0\nsamples = 1\nvalue = 0.477", fillcolor="#f6d3b9"] ;
167 -> 168 ;
169 [label="node #169\nx1 <= 0.711\nsquared_error = 0.0\nsamples = 2\nvalue = 0.565", fillcolor="#f5cdb1"] ;
167 -> 169 ;
170 [label="node #170\nsquared_error = 0.0\nsamples = 1\nvalue = 0.553", fillcolor="#f5ceb2"] ;
169 -> 170 ;
171 [label="node #171\nsquared_error = 0.0\nsamples = 1\nvalue = 0.577", fillcolor="#f5cdb0"] ;
169 -> 171 ;
172 [label="node #172\nsquared_error = 0.0\nsamples = 1\nvalue = 0.459", fillcolor="#f6d4bb"] ;
166 -> 172 ;
173 [label="node #173\nsquared_error = -0.0\nsamples = 1\nvalue = 0.649", fillcolor="#f4c8a9"] ;
165 -> 173 ;
174 [label="node #174\nx1 <= 0.729\nsquared_error = 0.0\nsamples = 2\nvalue = 0.455", fillcolor="#f6d4bb"] ;
164 -> 174 ;
175 [label="node #175\nsquared_error = 0.0\nsamples = 1\nvalue = 0.433", fillcolor="#f6d5bd"] ;
174 -> 175 ;
176 [label="node #176\nsquared_error = -0.0\nsamples = 1\nvalue = 0.477", fillcolor="#f6d3b9"] ;
174 -> 176 ;
177 [label="node #177\nx1 <= 0.758\nsquared_error = 0.003\nsamples = 6\nvalue = 0.619", fillcolor="#f4caac"] ;
163 -> 177 ;
178 [label="node #178\nx1 <= 0.744\nsquared_error = 0.004\nsamples = 2\nvalue = 0.645", fillcolor="#f4c9aa"] ;
177 -> 178 ;
179 [label="node #179\nsquared_error = 0.0\nsamples = 1\nvalue = 0.58", fillcolor="#f5cdb0"] ;
178 -> 179 ;
180 [label="node #180\nsquared_error = 0.0\nsamples = 1\nvalue = 0.71", fillcolor="#f3c5a4"] ;
178 -> 180 ;
181 [label="node #181\nx1 <= 0.761\nsquared_error = 0.002\nsamples = 4\nvalue = 0.606", fillcolor="#f4cbad"] ;
177 -> 181 ;
182 [label="node #182\nsquared_error = 0.0\nsamples = 1\nvalue = 0.531", fillcolor="#f5cfb4"] ;
181 -> 182 ;
183 [label="node #183\nx1 <= 0.771\nsquared_error = 0.0\nsamples = 3\nvalue = 0.631", fillcolor="#f4caab"] ;
181 -> 183 ;
184 [label="node #184\nx1 <= 0.766\nsquared_error = 0.0\nsamples = 2\nvalue = 0.637", fillcolor="#f4c9aa"] ;
183 -> 184 ;
185 [label="node #185\nsquared_error = 0.0\nsamples = 1\nvalue = 0.634", fillcolor="#f4c9ab"] ;
184 -> 185 ;
186 [label="node #186\nsquared_error = -0.0\nsamples = 1\nvalue = 0.641", fillcolor="#f4c9aa"] ;
184 -> 186 ;
187 [label="node #187\nsquared_error = 0.0\nsamples = 1\nvalue = 0.618", fillcolor="#f4caac"] ;
183 -> 187 ;
188 [label="node #188\nx1 <= 0.89\nsquared_error = 0.086\nsamples = 46\nvalue = 1.198", fillcolor="#eda876"] ;
0 -> 188 [labeldistance=2.5, labelangle=-45, headlabel="False"] ;
189 [label="node #189\nx1 <= 0.831\nsquared_error = 0.018\nsamples = 22\nvalue = 0.939", fillcolor="#f0b78e"] ;
188 -> 189 ;
190 [label="node #190\nx1 <= 0.812\nsquared_error = 0.005\nsamples = 13\nvalue = 0.85", fillcolor="#f1bc96"] ;
189 -> 190 ;
191 [label="node #191\nx1 <= 0.808\nsquared_error = 0.005\nsamples = 9\nvalue = 0.822", fillcolor="#f2be99"] ;
190 -> 191 ;
192 [label="node #192\nx1 <= 0.806\nsquared_error = 0.004\nsamples = 7\nvalue = 0.837", fillcolor="#f1bd98"] ;
191 -> 192 ;
193 [label="node #193\nx1 <= 0.774\nsquared_error = 0.002\nsamples = 6\nvalue = 0.819", fillcolor="#f2be99"] ;
192 -> 193 ;
194 [label="node #194\nsquared_error = 0.0\nsamples = 1\nvalue = 0.761", fillcolor="#f2c29f"] ;
193 -> 194 ;
195 [label="node #195\nx1 <= 0.794\nsquared_error = 0.002\nsamples = 5\nvalue = 0.831", fillcolor="#f1be98"] ;
193 -> 195 ;
196 [label="node #196\nx1 <= 0.778\nsquared_error = 0.001\nsamples = 3\nvalue = 0.855", fillcolor="#f1bc96"] ;
195 -> 196 ;
197 [label="node #197\nsquared_error = 0.0\nsamples = 1\nvalue = 0.809", fillcolor="#f2bf9a"] ;
196 -> 197 ;
198 [label="node #198\nx1 <= 0.783\nsquared_error = 0.0\nsamples = 2\nvalue = 0.878", fillcolor="#f1bb94"] ;
196 -> 198 ;
199 [label="node #199\nsquared_error = 0.0\nsamples = 1\nvalue = 0.869", fillcolor="#f1bb95"] ;
198 -> 199 ;
200 [label="node #200\nsquared_error = 0.0\nsamples = 1\nvalue = 0.887", fillcolor="#f1ba93"] ;
198 -> 200 ;
201 [label="node #201\nx1 <= 0.803\nsquared_error = 0.001\nsamples = 2\nvalue = 0.794", fillcolor="#f2c09c"] ;
195 -> 201 ;
202 [label="node #202\nsquared_error = 0.0\nsamples = 1\nvalue = 0.817", fillcolor="#f2be99"] ;
201 -> 202 ;
203 [label="node #203\nsquared_error = -0.0\nsamples = 1\nvalue = 0.771", fillcolor="#f2c19e"] ;
201 -> 203 ;
204 [label="node #204\nsquared_error = -0.0\nsamples = 1\nvalue = 0.946", fillcolor="#f0b78d"] ;
192 -> 204 ;
205 [label="node #205\nx1 <= 0.808\nsquared_error = 0.004\nsamples = 2\nvalue = 0.767", fillcolor="#f2c19e"] ;
191 -> 205 ;
206 [label="node #206\nsquared_error = 0.0\nsamples = 1\nvalue = 0.708", fillcolor="#f3c5a4"] ;
205 -> 206 ;
207 [label="node #207\nsquared_error = -0.0\nsamples = 1\nvalue = 0.827", fillcolor="#f2be99"] ;
205 -> 207 ;
208 [label="node #208\nx1 <= 0.816\nsquared_error = 0.001\nsamples = 4\nvalue = 0.913", fillcolor="#f0b990"] ;
190 -> 208 ;
209 [label="node #209\nsquared_error = 0.0\nsamples = 1\nvalue = 0.972", fillcolor="#f0b58b"] ;
208 -> 209 ;
210 [label="node #210\nx1 <= 0.818\nsquared_error = 0.0\nsamples = 3\nvalue = 0.893", fillcolor="#f1ba92"] ;
208 -> 210 ;
211 [label="node #211\nsquared_error = 0.0\nsamples = 1\nvalue = 0.912", fillcolor="#f0b991"] ;
210 -> 211 ;
212 [label="node #212\nx1 <= 0.823\nsquared_error = 0.0\nsamples = 2\nvalue = 0.884", fillcolor="#f1ba93"] ;
210 -> 212 ;
213 [label="node #213\nsquared_error = 0.0\nsamples = 1\nvalue = 0.881", fillcolor="#f1bb93"] ;
212 -> 213 ;
214 [label="node #214\nsquared_error = -0.0\nsamples = 1\nvalue = 0.888", fillcolor="#f1ba93"] ;
212 -> 214 ;
215 [label="node #215\nx1 <= 0.874\nsquared_error = 0.008\nsamples = 9\nvalue = 1.069", fillcolor="#efaf82"] ;
189 -> 215 ;
216 [label="node #216\nx1 <= 0.848\nsquared_error = 0.006\nsamples = 6\nvalue = 1.028", fillcolor="#efb286"] ;
215 -> 216 ;
217 [label="node #217\nx1 <= 0.834\nsquared_error = 0.003\nsamples = 2\nvalue = 0.974", fillcolor="#f0b58b"] ;
216 -> 217 ;
218 [label="node #218\nsquared_error = 0.0\nsamples = 1\nvalue = 1.031", fillcolor="#efb285"] ;
217 -> 218 ;
219 [label="node #219\nsquared_error = 0.0\nsamples = 1\nvalue = 0.916", fillcolor="#f0b890"] ;
217 -> 219 ;
220 [label="node #220\nx1 <= 0.869\nsquared_error = 0.005\nsamples = 4\nvalue = 1.055", fillcolor="#efb083"] ;
216 -> 220 ;
221 [label="node #221\nx1 <= 0.865\nsquared_error = 0.003\nsamples = 3\nvalue = 1.084", fillcolor="#eeae80"] ;
220 -> 221 ;
222 [label="node #222\nx1 <= 0.862\nsquared_error = 0.001\nsamples = 2\nvalue = 1.05", fillcolor="#efb084"] ;
221 -> 222 ;
223 [label="node #223\nsquared_error = 0.0\nsamples = 1\nvalue = 1.023", fillcolor="#efb286"] ;
222 -> 223 ;
224 [label="node #224\nsquared_error = -0.0\nsamples = 1\nvalue = 1.077", fillcolor="#eeaf81"] ;
222 -> 224 ;
225 [label="node #225\nsquared_error = 0.0\nsamples = 1\nvalue = 1.152", fillcolor="#eeaa7a"] ;
221 -> 225 ;
226 [label="node #226\nsquared_error = 0.0\nsamples = 1\nvalue = 0.968", fillcolor="#f0b58b"] ;
220 -> 226 ;
227 [label="node #227\nx1 <= 0.887\nsquared_error = 0.002\nsamples = 3\nvalue = 1.15", fillcolor="#eeaa7a"] ;
215 -> 227 ;
228 [label="node #228\nx1 <= 0.882\nsquared_error = 0.002\nsamples = 2\nvalue = 1.171", fillcolor="#eda978"] ;
227 -> 228 ;
229 [label="node #229\nsquared_error = 0.0\nsamples = 1\nvalue = 1.125", fillcolor="#eeac7d"] ;
228 -> 229 ;
230 [label="node #230\nsquared_error = 0.0\nsamples = 1\nvalue = 1.217", fillcolor="#eda674"] ;
228 -> 230 ;
231 [label="node #231\nsquared_error = -0.0\nsamples = 1\nvalue = 1.108", fillcolor="#eead7e"] ;
227 -> 231 ;
232 [label="node #232\nx1 <= 0.946\nsquared_error = 0.03\nsamples = 24\nvalue = 1.435", fillcolor="#ea995f"] ;
188 -> 232 ;
233 [label="node #233\nx1 <= 0.904\nsquared_error = 0.011\nsamples = 15\nvalue = 1.328", fillcolor="#eba069"] ;
232 -> 233 ;
234 [label="node #234\nx1 <= 0.894\nsquared_error = 0.005\nsamples = 6\nvalue = 1.221", fillcolor="#eda673"] ;
233 -> 234 ;
235 [label="node #235\nsquared_error = 0.0\nsamples = 1\nvalue = 1.357", fillcolor="#eb9e67"] ;
234 -> 235 ;
236 [label="node #236\nx1 <= 0.895\nsquared_error = 0.001\nsamples = 5\nvalue = 1.193", fillcolor="#eda876"] ;
234 -> 236 ;
237 [label="node #237\nsquared_error = 0.0\nsamples = 1\nvalue = 1.13", fillcolor="#eeac7c"] ;
236 -> 237 ;
238 [label="node #238\nx1 <= 0.897\nsquared_error = 0.0\nsamples = 4\nvalue = 1.209", fillcolor="#eda775"] ;
236 -> 238 ;
239 [label="node #239\nx1 <= 0.897\nsquared_error = 0.0\nsamples = 2\nvalue = 1.223", fillcolor="#eda673"] ;
238 -> 239 ;
240 [label="node #240\nsquared_error = 0.0\nsamples = 1\nvalue = 1.232", fillcolor="#eda672"] ;
239 -> 240 ;
241 [label="node #241\nsquared_error = 0.0\nsamples = 1\nvalue = 1.214", fillcolor="#eda774"] ;
239 -> 241 ;
242 [label="node #242\nx1 <= 0.899\nsquared_error = 0.0\nsamples = 2\nvalue = 1.195", fillcolor="#eda876"] ;
238 -> 242 ;
243 [label="node #243\nsquared_error = 0.0\nsamples = 1\nvalue = 1.185", fillcolor="#eda877"] ;
242 -> 243 ;
244 [label="node #244\nsquared_error = -0.0\nsamples = 1\nvalue = 1.205", fillcolor="#eda775"] ;
242 -> 244 ;
245 [label="node #245\nx1 <= 0.941\nsquared_error = 0.003\nsamples = 9\nvalue = 1.4", fillcolor="#ea9c63"] ;
233 -> 245 ;
246 [label="node #246\nx1 <= 0.938\nsquared_error = 0.002\nsamples = 8\nvalue = 1.392", fillcolor="#eb9c63"] ;
245 -> 246 ;
247 [label="node #247\nx1 <= 0.916\nsquared_error = 0.002\nsamples = 7\nvalue = 1.403", fillcolor="#ea9b62"] ;
246 -> 247 ;
248 [label="node #248\nx1 <= 0.908\nsquared_error = 0.001\nsamples = 3\nvalue = 1.372", fillcolor="#eb9d65"] ;
247 -> 248 ;
249 [label="node #249\nsquared_error = 0.0\nsamples = 1\nvalue = 1.415", fillcolor="#ea9b61"] ;
248 -> 249 ;
250 [label="node #250\nx1 <= 0.909\nsquared_error = 0.0\nsamples = 2\nvalue = 1.351", fillcolor="#eb9e67"] ;
248 -> 250 ;
251 [label="node #251\nsquared_error = 0.0\nsamples = 1\nvalue = 1.366", fillcolor="#eb9d66"] ;
250 -> 251 ;
252 [label="node #252\nsquared_error = 0.0\nsamples = 1\nvalue = 1.336", fillcolor="#eb9f69"] ;
250 -> 252 ;
253 [label="node #253\nx1 <= 0.927\nsquared_error = 0.001\nsamples = 4\nvalue = 1.426", fillcolor="#ea9a60"] ;
247 -> 253 ;
254 [label="node #254\nx1 <= 0.923\nsquared_error = 0.001\nsamples = 2\nvalue = 1.444", fillcolor="#ea995f"] ;
253 -> 254 ;
255 [label="node #255\nsquared_error = 0.0\nsamples = 1\nvalue = 1.413", fillcolor="#ea9b61"] ;
254 -> 255 ;
256 [label="node #256\nsquared_error = -0.0\nsamples = 1\nvalue = 1.474", fillcolor="#ea975c"] ;
254 -> 256 ;
257 [label="node #257\nx1 <= 0.933\nsquared_error = 0.001\nsamples = 2\nvalue = 1.408", fillcolor="#ea9b62"] ;
253 -> 257 ;
258 [label="node #258\nsquared_error = 0.0\nsamples = 1\nvalue = 1.378", fillcolor="#eb9d65"] ;
257 -> 258 ;
259 [label="node #259\nsquared_error = -0.0\nsamples = 1\nvalue = 1.439", fillcolor="#ea995f"] ;
257 -> 259 ;
260 [label="node #260\nsquared_error = -0.0\nsamples = 1\nvalue = 1.318", fillcolor="#eba06a"] ;
246 -> 260 ;
261 [label="node #261\nsquared_error = -0.0\nsamples = 1\nvalue = 1.459", fillcolor="#ea985d"] ;
245 -> 261 ;
262 [label="node #262\nx1 <= 0.964\nsquared_error = 0.01\nsamples = 9\nvalue = 1.614", fillcolor="#e88f4f"] ;
232 -> 262 ;
263 [label="node #263\nx1 <= 0.95\nsquared_error = 0.001\nsamples = 3\nvalue = 1.547", fillcolor="#e99355"] ;
262 -> 263 ;
264 [label="node #264\nsquared_error = 0.0\nsamples = 1\nvalue = 1.578", fillcolor="#e89152"] ;
263 -> 264 ;
265 [label="node #265\nx1 <= 0.957\nsquared_error = 0.0\nsamples = 2\nvalue = 1.531", fillcolor="#e99456"] ;
263 -> 265 ;
266 [label="node #266\nsquared_error = 0.0\nsamples = 1\nvalue = 1.54", fillcolor="#e99355"] ;
265 -> 266 ;
267 [label="node #267\nsquared_error = 0.0\nsamples = 1\nvalue = 1.523", fillcolor="#e99457"] ;
265 -> 267 ;
268 [label="node #268\nx1 <= 0.986\nsquared_error = 0.012\nsamples = 6\nvalue = 1.647", fillcolor="#e78d4b"] ;
262 -> 268 ;
269 [label="node #269\nx1 <= 0.979\nsquared_error = 0.012\nsamples = 5\nvalue = 1.669", fillcolor="#e78b49"] ;
268 -> 269 ;
270 [label="node #270\nx1 <= 0.97\nsquared_error = 0.005\nsamples = 4\nvalue = 1.626", fillcolor="#e88e4d"] ;
269 -> 270 ;
271 [label="node #271\nx1 <= 0.968\nsquared_error = 0.002\nsamples = 2\nvalue = 1.689", fillcolor="#e78a47"] ;
270 -> 271 ;
272 [label="node #272\nsquared_error = 0.0\nsamples = 1\nvalue = 1.647", fillcolor="#e78d4b"] ;
271 -> 272 ;
273 [label="node #273\nsquared_error = -0.0\nsamples = 1\nvalue = 1.73", fillcolor="#e68844"] ;
271 -> 273 ;
274 [label="node #274\nx1 <= 0.971\nsquared_error = 0.0\nsamples = 2\nvalue = 1.564", fillcolor="#e89253"] ;
270 -> 274 ;
275 [label="node #275\nsquared_error = 0.0\nsamples = 1\nvalue = 1.542", fillcolor="#e99355"] ;
274 -> 275 ;
276 [label="node #276\nsquared_error = -0.0\nsamples = 1\nvalue = 1.585", fillcolor="#e89051"] ;
274 -> 276 ;
277 [label="node #277\nsquared_error = -0.0\nsamples = 1\nvalue = 1.843", fillcolor="#e58139"] ;
269 -> 277 ;
278 [label="node #278\nsquared_error = -0.0\nsamples = 1\nvalue = 1.535", fillcolor="#e99356"] ;
268 -> 278 ;
}